<?xml version="1.0"?>
<opencv_storage>
<opencv_ml_svm>
  <format>3</format>
  <svmType>C_SVC</svmType>
  <kernel>
    <type>RBF</type>
    <gamma>1.0000000000000001e-01</gamma></kernel>
  <C>100.</C>
  <term_criteria><epsilon>1.0000000000000001e-05</epsilon></term_criteria>
  <var_count>80</var_count>
  <class_count>3</class_count>
  <class_labels type_id="opencv-matrix">
    <rows>3</rows>
    <cols>1</cols>
    <dt>i</dt>
    <data>
      0 1 2</data></class_labels>
  <sv_total>56</sv_total>
  <support_vectors>
    <_>
      2.43902430e-02 0. 0. 2.43902430e-02 0. 0. 2.43902430e-02
      1.21951215e-02 0. 1.21951215e-02 2.43902430e-02 0. 0.
      2.43902430e-02 0. 2.43902430e-02 4.87804860e-02 3.65853645e-02
      2.43902430e-02 0. 0. 0. 0. 0. 1.21951215e-02 0. 0. 1.21951215e-02
      4.87804860e-02 0. 0. 0. 3.65853645e-02 0. 1.21951215e-02
      1.21951215e-02 0. 1.21951215e-02 2.43902430e-02 0. 0.
      2.43902430e-02 0. 1.21951215e-02 3.65853645e-02 3.65853645e-02 0.
      0. 0. 1.21951215e-02 0. 1.21951215e-02 9.75609720e-02
      6.09756075e-02 1.21951215e-02 2.43902430e-02 0. 2.43902430e-02
      2.43902430e-02 0. 0. 0. 0. 1.21951215e-02 1.21951215e-02 0.
      4.87804860e-02 0. 1.21951215e-02 0. 0. 0. 0. 0. 2.43902430e-02
      3.65853645e-02 0. 0. 1.21951215e-02 1.21951215e-02</_>
    <_>
      6.12244904e-02 6.12244904e-02 0. 6.12244904e-02 0. 0.
      2.04081628e-02 0. 0. 0. 0. 2.04081628e-02 2.04081628e-02
      2.04081628e-02 0. 6.12244904e-02 4.08163257e-02 0. 0. 0. 0.
      2.04081628e-02 2.04081628e-02 2.04081628e-02 2.04081628e-02 0. 0.
      0. 2.04081628e-02 0. 2.04081628e-02 0. 4.08163257e-02
      2.04081628e-02 0. 2.04081628e-02 6.12244904e-02 0. 0.
      2.04081628e-02 0. 2.04081628e-02 0. 0. 4.08163257e-02
      2.04081628e-02 2.04081628e-02 0. 0. 0. 0. 2.04081628e-02
      2.04081628e-02 0. 0. 0. 0. 2.04081628e-02 0. 2.04081628e-02
      2.04081628e-02 0. 0. 0. 0. 2.04081628e-02 0. 2.04081628e-02 0. 0.
      0. 2.04081628e-02 2.04081628e-02 2.04081628e-02 2.04081628e-02
      2.04081628e-02 0. 0. 0. 0.</_>
    <_>
      0. 0. 2.38095243e-02 0. 0. 0. 7.14285746e-02 4.76190485e-02
      9.52380970e-02 0. 0. 0. 2.38095243e-02 7.14285746e-02 0. 0. 0. 0.
      4.76190485e-02 2.38095243e-02 2.38095243e-02 0. 0. 0. 0.
      2.38095243e-02 0. 0. 0. 0. 0. 7.14285746e-02 0. 2.38095243e-02
      2.38095243e-02 0. 0. 0. 0. 0. 0. 2.38095243e-02 4.76190485e-02
      2.38095243e-02 0. 0. 0. 0. 0. 0. 0. 0. 2.38095243e-02 0. 0. 0. 0.
      0. 0. 2.38095243e-02 0. 0. 0. 2.38095243e-02 0. 2.38095243e-02 0.
      4.76190485e-02 2.38095243e-02 0. 0. 2.38095243e-02 2.38095243e-02
      4.76190485e-02 0. 0. 4.76190485e-02 0. 0. 2.38095243e-02</_>
    <_>
      7.40740746e-02 1.85185187e-02 0. 7.40740746e-02 0. 0.
      1.85185187e-02 0. 0. 0. 0. 1.85185187e-02 1.85185187e-02
      3.70370373e-02 0. 3.70370373e-02 3.70370373e-02 0. 3.70370373e-02
      0. 0. 1.85185187e-02 1.85185187e-02 1.85185187e-02 1.85185187e-02
      0. 0. 1.85185187e-02 5.55555560e-02 0. 1.85185187e-02 0.
      3.70370373e-02 1.85185187e-02 0. 1.85185187e-02 3.70370373e-02 0.
      0. 3.70370373e-02 0. 1.85185187e-02 0. 0. 1.85185187e-02
      3.70370373e-02 1.85185187e-02 0. 0. 0. 0. 1.85185187e-02 0.
      1.85185187e-02 0. 0. 0. 1.85185187e-02 0. 1.85185187e-02
      1.85185187e-02 0. 1.85185187e-02 0. 1.85185187e-02 1.85185187e-02
      0. 0. 1.85185187e-02 0. 0. 1.85185187e-02 0. 0. 1.85185187e-02 0.
      1.85185187e-02 0. 0. 0.</_>
    <_>
      1.38888890e-02 0. 0. 1.38888890e-02 0. 0. 5.55555560e-02 0. 0. 0.
      4.16666679e-02 1.38888890e-02 4.16666679e-02 1.38888890e-02
      1.38888890e-02 0. 2.77777780e-02 4.16666679e-02 0. 0. 0.
      1.38888890e-02 0. 0. 2.77777780e-02 0. 0. 0. 2.77777780e-02 0. 0.
      0. 4.16666679e-02 0. 6.94444478e-02 0. 1.38888890e-02 0. 0.
      1.38888890e-02 0. 2.77777780e-02 0. 1.38888890e-02 2.77777780e-02
      5.55555560e-02 0. 0. 0. 1.38888890e-02 0. 1.38888890e-02
      4.16666679e-02 5.55555560e-02 0. 0. 0. 1.38888890e-02
      1.38888890e-02 0. 2.77777780e-02 0. 0. 0. 0. 1.38888890e-02
      1.38888890e-02 1.38888890e-02 1.38888890e-02 0. 0. 0. 0.
      2.77777780e-02 2.77777780e-02 2.77777780e-02 0. 0. 5.55555560e-02
      1.38888890e-02</_>
    <_>
      3.29670347e-02 4.39560451e-02 0. 1.09890113e-02 0. 0.
      2.19780225e-02 0. 0. 0. 3.29670347e-02 3.29670347e-02
      4.39560451e-02 4.39560451e-02 1.09890113e-02 1.09890113e-02
      3.29670347e-02 0. 1.09890113e-02 0. 1.09890113e-02 0. 0.
      1.09890113e-02 1.09890113e-02 1.09890113e-02 0. 1.09890113e-02
      2.19780225e-02 0. 1.09890113e-02 0. 2.19780225e-02 1.09890113e-02
      4.39560451e-02 1.09890113e-02 2.19780225e-02 0. 0. 0. 0.
      3.29670347e-02 0. 3.29670347e-02 3.29670347e-02 0. 0. 0. 0.
      1.09890113e-02 0. 2.19780225e-02 3.29670347e-02 8.79120901e-02 0.
      0. 0. 2.19780225e-02 0. 1.09890113e-02 1.09890113e-02 0.
      1.09890113e-02 0. 1.09890113e-02 1.09890113e-02 5.49450554e-02 0.
      1.09890113e-02 0. 0. 0. 1.09890113e-02 0. 2.19780225e-02 0. 0. 0.
      2.19780225e-02 2.19780225e-02</_>
    <_>
      0. 1.40845068e-02 2.81690136e-02 0. 0. 0. 7.04225302e-02
      1.40845068e-02 2.81690136e-02 2.81690136e-02 0. 0. 0. 0. 0. 0. 0.
      0. 0. 0. 0. 1.40845068e-02 0. 1.40845068e-02 0. 7.04225302e-02 0.
      0. 0. 2.81690136e-02 5.63380271e-02 2.81690136e-02 0. 0. 0. 0.
      2.81690136e-02 2.81690136e-02 5.63380271e-02 0. 0. 2.81690136e-02
      1.40845068e-02 4.22535203e-02 0. 0. 0. 1.40845068e-02 0. 0.
      2.81690136e-02 1.40845068e-02 1.40845068e-02 2.81690136e-02
      1.40845068e-02 0. 4.22535203e-02 0. 0. 1.40845068e-02
      1.40845068e-02 2.81690136e-02 0. 1.40845068e-02 5.63380271e-02
      1.40845068e-02 1.40845068e-02 0. 0. 0. 1.40845068e-02
      1.40845068e-02 0. 2.81690136e-02 0. 0. 2.81690136e-02
      1.40845068e-02 0. 0.</_>
    <_>
      0. 3.57142873e-02 0. 1.19047621e-02 1.19047621e-02 0.
      1.19047621e-02 0. 0. 0. 3.57142873e-02 1.19047621e-02
      1.19047621e-02 2.38095243e-02 0. 1.19047621e-02 3.57142873e-02
      2.38095243e-02 0. 0. 2.38095243e-02 0. 0. 1.19047621e-02
      1.19047621e-02 0. 0. 0. 4.76190485e-02 0. 2.38095243e-02 0.
      3.57142873e-02 0. 8.33333358e-02 2.38095243e-02 0. 0.
      2.38095243e-02 1.19047621e-02 0. 5.95238097e-02 0. 3.57142873e-02
      1.19047621e-02 3.57142873e-02 1.19047621e-02 0. 0. 0. 0. 0.
      1.19047621e-02 1.07142858e-01 1.19047621e-02 0. 0. 1.19047621e-02
      0. 1.19047621e-02 0. 0. 0. 1.19047621e-02 0. 1.19047621e-02
      3.57142873e-02 0. 1.19047621e-02 1.19047621e-02 0. 0.
      1.19047621e-02 0. 2.38095243e-02 1.19047621e-02 0. 0.
      2.38095243e-02 1.19047621e-02</_>
    <_>
      5.12820520e-02 5.12820520e-02 0. 0. 0. 2.56410260e-02
      2.56410260e-02 0. 7.69230798e-02 2.56410260e-02 0. 2.56410260e-02
      0. 0. 0. 0. 0. 5.12820520e-02 2.56410260e-02 0. 5.12820520e-02 0.
      0. 0. 2.56410260e-02 0. 0. 0. 0. 0. 2.56410260e-02 0. 0. 0. 0. 0.
      0. 0. 0. 0. 2.56410260e-02 5.12820520e-02 0. 0. 0. 0. 0.
      2.56410260e-02 1.53846160e-01 2.56410260e-02 0. 2.56410260e-02 0.
      0. 0. 2.56410260e-02 0. 0. 0. 2.56410260e-02 0. 0. 2.56410260e-02
      0. 0. 0. 0. 0. 0. 0. 0. 0. 5.12820520e-02 5.12820520e-02
      2.56410260e-02 0. 0. 0. 0. 2.56410260e-02</_>
    <_>
      6.38297871e-02 4.25531901e-02 0. 6.38297871e-02 0. 0.
      4.25531901e-02 0. 0. 0. 0. 4.25531901e-02 2.12765951e-02
      2.12765951e-02 0. 2.12765951e-02 4.25531901e-02 0. 2.12765951e-02
      0. 0. 4.25531901e-02 4.25531901e-02 2.12765951e-02 2.12765951e-02
      0. 0. 0. 0. 0. 2.12765951e-02 2.12765951e-02 0. 0. 0.
      2.12765951e-02 2.12765951e-02 0. 0. 2.12765951e-02 0.
      2.12765951e-02 0. 0. 6.38297871e-02 2.12765951e-02 2.12765951e-02
      0. 2.12765951e-02 0. 0. 2.12765951e-02 0. 0. 0. 0. 0.
      2.12765951e-02 0. 2.12765951e-02 2.12765951e-02 0. 0. 0.
      2.12765951e-02 2.12765951e-02 0. 0. 0. 0. 0. 2.12765951e-02 0.
      2.12765951e-02 6.38297871e-02 0. 0. 0. 0. 0.</_>
    <_>
      8.08080807e-02 0. 1.01010101e-02 1.01010101e-02 1.01010101e-02
      1.01010101e-02 1.01010101e-02 0. 3.03030312e-02 0. 0.
      1.01010101e-02 0. 0. 2.02020202e-02 0. 0. 1.01010101e-02 0.
      3.03030312e-02 0. 0. 0. 1.01010101e-02 0. 3.03030312e-02
      3.03030312e-02 2.02020202e-02 0. 3.03030312e-02 0. 4.04040404e-02
      0. 1.01010101e-02 0. 0. 3.03030312e-02 1.01010101e-02
      4.04040404e-02 0. 0. 1.01010101e-02 0. 1.01010101e-02
      1.01010101e-02 1.01010101e-02 0. 1.21212125e-01 1.01010101e-02
      1.01010101e-02 0. 0. 0. 1.01010101e-02 6.06060624e-02 0.
      3.03030312e-02 0. 2.02020202e-02 3.03030312e-02 1.01010101e-02 0.
      2.02020202e-02 2.02020202e-02 0. 1.01010101e-02 0. 1.01010101e-02
      0. 1.01010101e-02 1.01010101e-02 2.02020202e-02 1.01010101e-02 0.
      1.01010101e-02 0. 3.03030312e-02 1.01010101e-02 0. 1.01010101e-02</_>
    <_>
      2.63157897e-02 0. 2.63157897e-02 0. 0. 0. 7.89473653e-02
      2.63157897e-02 2.63157897e-02 0. 0. 0. 2.63157897e-02
      2.63157897e-02 0. 0. 2.63157897e-02 0. 2.63157897e-02 0. 0. 0. 0.
      0. 0. 2.63157897e-02 0. 0. 2.63157897e-02 0. 5.26315793e-02
      2.63157897e-02 2.63157897e-02 0. 0. 0. 0. 0. 0. 0. 0. 0. 0.
      5.26315793e-02 0. 0. 0. 0. 2.63157897e-02 2.63157897e-02 0. 0. 0.
      2.63157897e-02 2.63157897e-02 0. 0. 0. 0. 7.89473653e-02
      2.63157897e-02 0. 0. 2.63157897e-02 0. 5.26315793e-02
      2.63157897e-02 0. 0. 0. 0. 2.63157897e-02 2.63157897e-02 0. 0. 0.
      5.26315793e-02 2.63157897e-02 0. 5.26315793e-02</_>
    <_>
      0. 3.22580636e-02 3.22580636e-02 0. 0. 0. 0. 3.22580636e-02 0. 0.
      0. 3.22580636e-02 0. 0. 0. 0. 0. 0. 0. 0. 0. 3.22580636e-02
      3.22580636e-02 3.22580636e-02 3.22580636e-02 0. 0. 3.22580636e-02
      0. 0. 3.22580636e-02 3.22580636e-02 0. 0. 0. 0. 3.22580636e-02 0.
      0. 0. 3.22580636e-02 0. 0. 0. 6.45161271e-02 0. 3.22580636e-02 0.
      0. 0. 0. 0. 3.22580636e-02 0. 0. 6.45161271e-02 0. 0.
      6.45161271e-02 0. 0. 0. 0. 0. 0. 6.45161271e-02 0. 3.22580636e-02
      0. 0. 0. 3.22580636e-02 6.45161271e-02 3.22580636e-02 0. 0.
      3.22580636e-02 3.22580636e-02 3.22580636e-02 0.</_>
    <_>
      3.84615399e-02 0. 0. 3.84615399e-02 0. 3.84615399e-02 0. 0. 0.
      7.69230798e-02 0. 0. 0. 0. 0. 0. 0. 3.84615399e-02 3.84615399e-02
      0. 3.84615399e-02 3.84615399e-02 3.84615399e-02 0. 0. 0. 0.
      3.84615399e-02 0. 0. 3.84615399e-02 0. 0. 0. 0. 0. 3.84615399e-02
      0. 0. 0. 3.84615399e-02 0. 0. 0. 7.69230798e-02 0. 0. 0. 0.
      3.84615399e-02 0. 3.84615399e-02 3.84615399e-02 0. 0. 0. 0. 0.
      7.69230798e-02 0. 0. 0. 0. 0. 0. 0. 0. 0. 0. 0. 0. 3.84615399e-02
      0. 0. 3.84615399e-02 7.69230798e-02 0. 0. 0. 3.84615399e-02</_>
    <_>
      5.40540554e-02 0. 0. 0. 0. 5.40540554e-02 2.70270277e-02 0.
      5.40540554e-02 5.40540554e-02 0. 2.70270277e-02 0. 0. 0. 0. 0.
      5.40540554e-02 2.70270277e-02 0. 2.70270277e-02 0. 2.70270277e-02
      0. 2.70270277e-02 2.70270277e-02 0. 2.70270277e-02 0. 0. 0.
      2.70270277e-02 0. 0. 0. 0. 0. 0. 0. 0. 2.70270277e-02 0. 0. 0.
      5.40540554e-02 0. 0. 0. 1.08108111e-01 0. 0. 0. 0. 2.70270277e-02
      0. 2.70270277e-02 0. 0. 2.70270277e-02 2.70270277e-02 0. 0. 0. 0.
      0. 2.70270277e-02 0. 2.70270277e-02 0. 0. 0. 0. 5.40540554e-02 0.
      0. 2.70270277e-02 5.40540554e-02 0. 0. 0.</_>
    <_>
      1.28205130e-02 2.56410260e-02 0. 0. 0. 0. 1.28205130e-02
      2.56410260e-02 0. 0. 6.41025677e-02 2.56410260e-02 3.84615399e-02
      1.28205130e-02 0. 1.28205130e-02 1.28205130e-02 3.84615399e-02 0.
      0. 1.28205130e-02 2.56410260e-02 0. 0. 1.28205130e-02 0. 0. 0.
      2.56410260e-02 0. 0. 0. 3.84615399e-02 1.28205130e-02
      6.41025677e-02 0. 1.28205130e-02 0. 0. 1.28205130e-02 0.
      3.84615399e-02 0. 0. 2.56410260e-02 3.84615399e-02 0. 0. 0.
      1.28205130e-02 0. 0. 3.84615399e-02 7.69230798e-02 0.
      2.56410260e-02 0. 1.28205130e-02 0. 0. 1.28205130e-02 0.
      1.28205130e-02 0. 1.28205130e-02 2.56410260e-02 1.28205130e-02 0.
      1.28205130e-02 1.28205130e-02 0. 1.28205130e-02 0. 1.28205130e-02
      1.28205130e-02 2.56410260e-02 0. 1.28205130e-02 3.84615399e-02
      1.28205130e-02</_>
    <_>
      5.47945201e-02 0. 1.36986300e-02 0. 0. 0. 2.73972601e-02 0.
      5.47945201e-02 5.47945201e-02 0. 1.36986300e-02 0. 0.
      1.36986300e-02 1.36986300e-02 0. 0. 0. 0. 0. 0. 0. 1.36986300e-02
      0. 5.47945201e-02 0. 1.36986300e-02 1.36986300e-02 4.10958901e-02
      0. 4.10958901e-02 0. 1.36986300e-02 0. 0. 1.36986300e-02
      1.36986300e-02 2.73972601e-02 0. 0. 1.36986300e-02 2.73972601e-02
      0. 0. 0. 1.36986300e-02 0. 2.73972601e-02 1.36986300e-02 0.
      1.36986300e-02 1.36986300e-02 1.36986300e-02 2.73972601e-02 0.
      4.10958901e-02 0. 1.36986300e-02 1.36986300e-02 2.73972601e-02
      2.73972601e-02 1.36986300e-02 1.36986300e-02 1.36986300e-02
      1.36986300e-02 0. 0. 0. 2.73972601e-02 1.36986300e-02
      5.47945201e-02 1.36986300e-02 0. 0. 0. 2.73972601e-02
      1.36986300e-02 0. 1.36986300e-02</_>
    <_>
      2.43902430e-02 0. 0. 2.43902430e-02 0. 0. 2.43902430e-02
      1.21951215e-02 0. 1.21951215e-02 2.43902430e-02 0. 0.
      2.43902430e-02 0. 2.43902430e-02 4.87804860e-02 3.65853645e-02
      2.43902430e-02 0. 0. 0. 0. 0. 1.21951215e-02 0. 0. 1.21951215e-02
      4.87804860e-02 0. 0. 0. 3.65853645e-02 0. 1.21951215e-02
      1.21951215e-02 0. 1.21951215e-02 2.43902430e-02 0. 0.
      2.43902430e-02 0. 1.21951215e-02 3.65853645e-02 3.65853645e-02 0.
      0. 0. 1.21951215e-02 0. 1.21951215e-02 9.75609720e-02
      6.09756075e-02 1.21951215e-02 2.43902430e-02 0. 2.43902430e-02
      2.43902430e-02 0. 0. 0. 0. 1.21951215e-02 1.21951215e-02 0.
      4.87804860e-02 0. 1.21951215e-02 0. 0. 0. 0. 0. 2.43902430e-02
      3.65853645e-02 0. 0. 1.21951215e-02 1.21951215e-02</_>
    <_>
      1.31578948e-02 1.31578948e-02 0. 0. 0. 1.31578948e-02
      1.31578948e-02 0. 0. 0. 2.63157897e-02 1.31578948e-02
      2.63157897e-02 1.31578948e-02 0. 0. 1.31578948e-02 2.63157897e-02
      0. 0. 0. 0. 0. 1.31578948e-02 5.26315793e-02 0. 0. 0.
      1.31578948e-02 0. 0. 0. 2.63157897e-02 0. 2.63157897e-02
      1.31578948e-02 0. 0. 1.31578948e-02 1.31578948e-02 0.
      3.94736826e-02 0. 5.26315793e-02 2.63157897e-02 6.57894760e-02 0.
      0. 0. 0. 0. 1.31578948e-02 5.26315793e-02 7.89473653e-02 0. 0. 0.
      1.31578948e-02 1.31578948e-02 0. 3.94736826e-02 0. 1.31578948e-02
      1.31578948e-02 3.94736826e-02 3.94736826e-02 5.26315793e-02 0. 0.
      0. 0. 0. 0. 1.31578948e-02 2.63157897e-02 2.63157897e-02 0. 0.
      3.94736826e-02 0.</_>
    <_>
      2.43902430e-02 2.43902430e-02 0. 0. 0. 0. 1.21951215e-02
      1.21951215e-02 0. 0. 4.87804860e-02 2.43902430e-02 3.65853645e-02
      2.43902430e-02 0. 2.43902430e-02 1.21951215e-02 2.43902430e-02
      2.43902430e-02 0. 0. 0. 1.21951215e-02 0. 2.43902430e-02 0. 0. 0.
      2.43902430e-02 0. 0. 0. 4.87804860e-02 0. 2.43902430e-02 0. 0. 0.
      1.21951215e-02 1.21951215e-02 0. 3.65853645e-02 0. 1.21951215e-02
      2.43902430e-02 4.87804860e-02 1.21951215e-02 0. 0. 2.43902430e-02
      0. 0. 4.87804860e-02 4.87804860e-02 0. 0. 0. 1.21951215e-02 0.
      3.65853645e-02 3.65853645e-02 0. 1.21951215e-02 0. 2.43902430e-02
      1.21951215e-02 3.65853645e-02 0. 1.21951215e-02 0. 0. 0.
      1.21951215e-02 1.21951215e-02 3.65853645e-02 3.65853645e-02 0. 0.
      1.21951215e-02 0.</_>
    <_>
      2.43902430e-02 0. 0. 2.43902430e-02 0. 0. 2.43902430e-02
      1.21951215e-02 0. 1.21951215e-02 2.43902430e-02 0. 0.
      2.43902430e-02 0. 2.43902430e-02 4.87804860e-02 3.65853645e-02
      2.43902430e-02 0. 0. 0. 0. 0. 1.21951215e-02 0. 0. 1.21951215e-02
      4.87804860e-02 0. 0. 0. 3.65853645e-02 0. 1.21951215e-02
      1.21951215e-02 0. 1.21951215e-02 2.43902430e-02 0. 0.
      2.43902430e-02 0. 1.21951215e-02 3.65853645e-02 3.65853645e-02 0.
      0. 0. 1.21951215e-02 0. 1.21951215e-02 9.75609720e-02
      6.09756075e-02 1.21951215e-02 2.43902430e-02 0. 2.43902430e-02
      2.43902430e-02 0. 0. 0. 0. 1.21951215e-02 1.21951215e-02 0.
      4.87804860e-02 0. 1.21951215e-02 0. 0. 0. 0. 0. 2.43902430e-02
      3.65853645e-02 0. 0. 1.21951215e-02 1.21951215e-02</_>
    <_>
      4.44444455e-02 4.44444455e-02 0. 4.44444455e-02 0. 0.
      2.22222228e-02 0. 2.22222228e-02 0. 0. 0. 2.22222228e-02
      4.44444455e-02 0. 4.44444455e-02 2.22222228e-02 0. 6.66666701e-02
      0. 0. 4.44444455e-02 0. 2.22222228e-02 2.22222228e-02 0. 0.
      2.22222228e-02 0. 0. 4.44444455e-02 2.22222228e-02 2.22222228e-02
      0. 0. 2.22222228e-02 0. 2.22222228e-02 0. 2.22222228e-02 0. 0. 0.
      0. 2.22222228e-02 4.44444455e-02 0. 0. 0. 0. 0. 2.22222228e-02 0.
      0. 0. 0. 0. 2.22222228e-02 0. 0. 4.44444455e-02 0. 0.
      4.44444455e-02 0. 2.22222228e-02 0. 0. 0. 0. 0. 2.22222228e-02
      4.44444455e-02 2.22222228e-02 2.22222228e-02 0. 0. 0.
      2.22222228e-02 0.</_>
    <_>
      1.23456791e-02 2.46913582e-02 0. 1.23456791e-02 0. 0.
      2.46913582e-02 0. 0. 1.23456791e-02 2.46913582e-02 0. 0.
      4.93827164e-02 0. 1.23456791e-02 4.93827164e-02 3.70370373e-02
      1.23456791e-02 0. 0. 0. 0. 0. 3.70370373e-02 0. 0. 1.23456791e-02
      1.23456791e-02 0. 0. 0. 2.46913582e-02 0. 4.93827164e-02
      1.23456791e-02 0. 1.23456791e-02 2.46913582e-02 0. 0.
      2.46913582e-02 0. 0. 3.70370373e-02 6.17283955e-02 0. 0. 0. 0. 0.
      2.46913582e-02 8.64197537e-02 6.17283955e-02 1.23456791e-02
      1.23456791e-02 0. 3.70370373e-02 2.46913582e-02 0. 0. 0.
      1.23456791e-02 0. 2.46913582e-02 0. 2.46913582e-02 0.
      1.23456791e-02 0. 0. 0. 0. 0. 2.46913582e-02 2.46913582e-02 0. 0.
      1.23456791e-02 2.46913582e-02</_>
    <_>
      6.89655170e-02 0. 0. 3.44827585e-02 0. 0. 0. 3.44827585e-02
      3.44827585e-02 0. 0. 0. 3.44827585e-02 3.44827585e-02 0. 0. 0.
      3.44827585e-02 3.44827585e-02 0. 0. 0. 3.44827585e-02 0. 0. 0. 0.
      0. 3.44827585e-02 0. 6.89655170e-02 0. 0. 0. 0. 0. 0. 0. 0.
      3.44827585e-02 0. 0. 0. 0. 3.44827585e-02 0. 0. 0. 0.
      3.44827585e-02 0. 0. 3.44827585e-02 0. 0. 0. 0. 0. 6.89655170e-02
      0. 3.44827585e-02 0. 3.44827585e-02 0. 0. 0. 0. 1.03448272e-01 0.
      6.89655170e-02 0. 0. 3.44827585e-02 0. 3.44827585e-02
      3.44827585e-02 0. 0. 0. 0.</_>
    <_>
      6.38297871e-02 0. 0. 4.25531901e-02 0. 0. 2.12765951e-02
      4.25531901e-02 2.12765951e-02 0. 2.12765951e-02 0. 0.
      2.12765951e-02 0. 2.12765951e-02 0. 0. 0. 0. 0. 6.38297871e-02 0.
      0. 2.12765951e-02 0. 0. 0. 0. 0. 4.25531901e-02 0. 2.12765951e-02
      0. 0. 0. 6.38297871e-02 0. 0. 2.12765951e-02 0. 0. 0.
      4.25531901e-02 4.25531901e-02 4.25531901e-02 0. 0. 0. 0. 0. 0. 0.
      0. 0. 0. 2.12765951e-02 2.12765951e-02 0. 4.25531901e-02
      6.38297871e-02 0. 2.12765951e-02 2.12765951e-02 0. 0.
      4.25531901e-02 0. 4.25531901e-02 0. 0. 2.12765951e-02 0.
      6.38297871e-02 0. 0. 0. 0. 0. 2.12765951e-02</_>
    <_>
      9.57446769e-02 0. 1.06382975e-02 1.06382975e-02 1.06382975e-02
      1.06382975e-02 3.19148935e-02 0. 8.51063803e-02 0. 0.
      1.06382975e-02 0. 0. 2.12765951e-02 0. 0. 1.06382975e-02 0. 0. 0.
      0. 0. 2.12765951e-02 0. 4.25531901e-02 1.06382975e-02
      2.12765951e-02 0. 1.06382975e-02 2.12765951e-02 1.06382975e-02 0.
      2.12765951e-02 0. 0. 3.19148935e-02 1.06382975e-02 3.19148935e-02
      0. 0. 0. 0. 0. 3.19148935e-02 2.12765951e-02 0. 1.06382973e-01
      1.06382975e-02 0. 1.06382975e-02 0. 1.06382975e-02 0.
      3.19148935e-02 0. 1.06382975e-02 0. 0. 1.06382975e-02 0. 0.
      2.12765951e-02 1.06382975e-02 0. 2.12765951e-02 0. 2.12765951e-02
      1.06382975e-02 0. 1.06382975e-02 3.19148935e-02 1.06382975e-02 0.
      1.06382975e-02 0. 2.12765951e-02 1.06382975e-02 0. 4.25531901e-02</_>
    <_>
      2.43902430e-02 0. 0. 2.43902430e-02 0. 0. 2.43902430e-02
      1.21951215e-02 0. 1.21951215e-02 2.43902430e-02 0. 0.
      2.43902430e-02 0. 2.43902430e-02 4.87804860e-02 3.65853645e-02
      2.43902430e-02 0. 0. 0. 0. 0. 1.21951215e-02 0. 0. 1.21951215e-02
      4.87804860e-02 0. 0. 0. 3.65853645e-02 0. 1.21951215e-02
      1.21951215e-02 0. 1.21951215e-02 2.43902430e-02 0. 0.
      2.43902430e-02 0. 1.21951215e-02 3.65853645e-02 3.65853645e-02 0.
      0. 0. 1.21951215e-02 0. 1.21951215e-02 9.75609720e-02
      6.09756075e-02 1.21951215e-02 2.43902430e-02 0. 2.43902430e-02
      2.43902430e-02 0. 0. 0. 0. 1.21951215e-02 1.21951215e-02 0.
      4.87804860e-02 0. 1.21951215e-02 0. 0. 0. 0. 0. 2.43902430e-02
      3.65853645e-02 0. 0. 1.21951215e-02 1.21951215e-02</_>
    <_>
      1.31578948e-02 1.31578948e-02 0. 1.31578948e-02 0. 0.
      1.31578948e-02 0. 0. 0. 2.63157897e-02 2.63157897e-02 0.
      2.63157897e-02 0. 1.31578948e-02 2.63157897e-02 1.31578948e-02
      1.31578948e-02 0. 1.31578948e-02 0. 1.31578948e-02 1.31578948e-02
      2.63157897e-02 0. 0. 0. 3.94736826e-02 0. 1.31578948e-02 0.
      3.94736826e-02 0. 6.57894760e-02 1.31578948e-02 1.31578948e-02 0.
      0. 1.31578948e-02 0. 3.94736826e-02 0. 2.63157897e-02
      3.94736826e-02 2.63157897e-02 0. 0. 1.31578948e-02 0. 0.
      1.31578948e-02 2.63157897e-02 2.63157897e-02 0. 0. 0.
      1.31578948e-02 0. 1.31578948e-02 1.31578948e-02 0. 0. 0.
      3.94736826e-02 1.31578948e-02 3.94736826e-02 0. 3.94736826e-02
      1.31578948e-02 0. 1.31578948e-02 2.63157897e-02 1.31578948e-02
      3.94736826e-02 1.31578948e-02 0. 0. 2.63157897e-02 1.31578948e-02</_>
    <_>
      3.70370373e-02 0. 1.23456791e-02 1.23456791e-02 1.23456791e-02
      2.46913582e-02 1.23456791e-02 0. 7.40740746e-02 1.23456791e-02 0.
      0. 0. 0. 1.23456791e-02 0. 0. 1.23456791e-02 0. 4.93827164e-02
      1.23456791e-02 0. 0. 1.23456791e-02 0. 4.93827164e-02
      1.23456791e-02 1.23456791e-02 0. 2.46913582e-02 1.23456791e-02
      2.46913582e-02 0. 1.23456791e-02 0. 0. 3.70370373e-02
      1.23456791e-02 3.70370373e-02 0. 0. 0. 0. 0. 0. 3.70370373e-02 0.
      8.64197537e-02 2.46913582e-02 0. 2.46913582e-02 1.23456791e-02
      2.46913582e-02 0. 2.46913582e-02 0. 2.46913582e-02 0. 0. 0.
      1.23456791e-02 0. 1.23456791e-02 0. 0. 2.46913582e-02 0.
      3.70370373e-02 1.23456791e-02 0. 1.23456791e-02 2.46913582e-02 0.
      0. 1.23456791e-02 0. 3.70370373e-02 1.23456791e-02 0.
      1.23456791e-02</_>
    <_>
      0. 0. 0. 3.03030312e-02 0. 6.06060624e-02 3.03030312e-02 0.
      3.03030312e-02 3.03030312e-02 0. 3.03030312e-02 6.06060624e-02 0.
      0. 0. 0. 0. 3.03030312e-02 0. 0. 3.03030312e-02 3.03030312e-02
      3.03030312e-02 3.03030312e-02 0. 0. 0. 0. 0. 3.03030312e-02 0. 0.
      0. 0. 0. 6.06060624e-02 0. 0. 0. 1.21212125e-01 0. 0. 0.
      3.03030312e-02 0. 3.03030312e-02 0. 3.03030312e-02 0.
      3.03030312e-02 0. 3.03030312e-02 0. 0. 0. 0. 0. 6.06060624e-02 0.
      0. 0. 0. 0. 0. 0. 0. 6.06060624e-02 0. 0. 0. 3.03030312e-02
      3.03030312e-02 0. 0. 0. 3.03030312e-02 0. 0. 0.</_>
    <_>
      8.97435918e-02 1.28205130e-02 1.28205130e-02 0. 0. 0.
      3.84615399e-02 0. 5.12820520e-02 3.84615399e-02 0. 1.28205130e-02
      0. 0. 1.28205130e-02 0. 0. 0. 0. 2.56410260e-02 0. 0. 0.
      1.28205130e-02 1.28205130e-02 5.12820520e-02 0. 1.28205130e-02
      1.28205130e-02 1.28205130e-02 1.28205130e-02 5.12820520e-02 0.
      1.28205130e-02 0. 0. 1.28205130e-02 1.28205130e-02 0.
      1.28205130e-02 0. 1.28205130e-02 3.84615399e-02 2.56410260e-02 0.
      0. 1.28205130e-02 0. 2.56410260e-02 0. 1.28205130e-02
      3.84615399e-02 1.28205130e-02 2.56410260e-02 0. 0. 3.84615399e-02
      0. 0. 3.84615399e-02 0. 1.28205130e-02 0. 1.28205130e-02
      1.28205130e-02 2.56410260e-02 1.28205130e-02 1.28205130e-02 0.
      1.28205130e-02 1.28205130e-02 1.28205130e-02 0. 0. 0. 0.
      1.28205130e-02 1.28205130e-02 0. 3.84615399e-02</_>
    <_>
      2.56410260e-02 0. 2.56410260e-02 0. 2.56410260e-02 0. 0.
      2.56410260e-02 2.56410260e-02 0. 0. 0. 5.12820520e-02
      2.56410260e-02 0. 0. 2.56410260e-02 7.69230798e-02 5.12820520e-02
      0. 0. 0. 2.56410260e-02 2.56410260e-02 0. 0. 0. 2.56410260e-02
      2.56410260e-02 0. 0. 0. 0. 0. 0. 0. 0. 0. 0. 0. 2.56410260e-02
      2.56410260e-02 0. 0. 5.12820520e-02 5.12820520e-02 0. 0. 0.
      1.02564104e-01 0. 2.56410260e-02 0. 0. 0. 0. 0. 0. 0. 0.
      5.12820520e-02 0. 0. 0. 0. 0. 2.56410260e-02 2.56410260e-02
      2.56410260e-02 2.56410260e-02 0. 0. 0. 0. 5.12820520e-02 0. 0. 0.
      0. 5.12820520e-02</_>
    <_>
      2.43902430e-02 0. 0. 2.43902430e-02 0. 0. 2.43902430e-02
      1.21951215e-02 0. 1.21951215e-02 2.43902430e-02 0. 0.
      2.43902430e-02 0. 2.43902430e-02 4.87804860e-02 3.65853645e-02
      2.43902430e-02 0. 0. 0. 0. 0. 1.21951215e-02 0. 0. 1.21951215e-02
      4.87804860e-02 0. 0. 0. 3.65853645e-02 0. 1.21951215e-02
      1.21951215e-02 0. 1.21951215e-02 2.43902430e-02 0. 0.
      2.43902430e-02 0. 1.21951215e-02 3.65853645e-02 3.65853645e-02 0.
      0. 0. 1.21951215e-02 0. 1.21951215e-02 9.75609720e-02
      6.09756075e-02 1.21951215e-02 2.43902430e-02 0. 2.43902430e-02
      2.43902430e-02 0. 0. 0. 0. 1.21951215e-02 1.21951215e-02 0.
      4.87804860e-02 0. 1.21951215e-02 0. 0. 0. 0. 0. 2.43902430e-02
      3.65853645e-02 0. 0. 1.21951215e-02 1.21951215e-02</_>
    <_>
      0. 3.22580636e-02 3.22580636e-02 0. 0. 0. 0. 3.22580636e-02 0. 0.
      0. 3.22580636e-02 0. 0. 0. 0. 0. 0. 0. 0. 0. 3.22580636e-02
      3.22580636e-02 3.22580636e-02 3.22580636e-02 0. 0. 3.22580636e-02
      0. 0. 3.22580636e-02 3.22580636e-02 0. 0. 0. 0. 3.22580636e-02 0.
      0. 0. 3.22580636e-02 0. 0. 0. 6.45161271e-02 0. 3.22580636e-02 0.
      0. 0. 0. 0. 3.22580636e-02 0. 0. 6.45161271e-02 0. 0.
      6.45161271e-02 0. 0. 0. 0. 0. 0. 6.45161271e-02 0. 3.22580636e-02
      0. 0. 0. 3.22580636e-02 6.45161271e-02 3.22580636e-02 0. 0.
      3.22580636e-02 3.22580636e-02 3.22580636e-02 0.</_>
    <_>
      6.52173907e-02 2.17391308e-02 0. 4.34782617e-02 0. 0. 0. 0.
      2.17391308e-02 0. 0. 0. 0. 4.34782617e-02 0. 2.17391308e-02 0. 0.
      6.52173907e-02 0. 0. 4.34782617e-02 0. 2.17391308e-02
      2.17391308e-02 0. 0. 2.17391308e-02 0. 0. 6.52173907e-02
      2.17391308e-02 6.52173907e-02 0. 0. 4.34782617e-02 2.17391308e-02
      2.17391308e-02 0. 0. 0. 0. 0. 0. 6.52173907e-02 2.17391308e-02 0.
      0. 0. 0. 0. 2.17391308e-02 0. 0. 0. 0. 2.17391308e-02
      2.17391308e-02 0. 0. 4.34782617e-02 0. 0. 4.34782617e-02 0.
      2.17391308e-02 0. 2.17391308e-02 0. 0. 0. 0. 6.52173907e-02
      2.17391308e-02 0. 0. 0. 0. 0. 0.</_>
    <_>
      7.69230798e-02 0. 0. 2.56410260e-02 0. 0. 2.56410260e-02
      5.12820520e-02 0. 0. 0. 2.56410260e-02 0. 2.56410260e-02 0. 0. 0.
      0. 5.12820520e-02 0. 2.56410260e-02 0. 5.12820520e-02 0. 0. 0. 0.
      0. 0. 0. 2.56410260e-02 0. 5.12820520e-02 0. 0. 0. 0. 0. 0. 0.
      2.56410260e-02 2.56410260e-02 0. 2.56410260e-02 5.12820520e-02 0.
      5.12820520e-02 2.56410260e-02 0. 0. 2.56410260e-02 2.56410260e-02
      0. 0. 0. 2.56410260e-02 0. 0. 2.56410260e-02 0. 0. 0.
      2.56410260e-02 0. 0. 2.56410260e-02 0. 2.56410260e-02 0.
      7.69230798e-02 0. 0. 7.69230798e-02 0. 2.56410260e-02 0. 0. 0. 0.
      0.</_>
    <_>
      3.57142873e-02 0. 0. 3.57142873e-02 0. 0. 0. 3.57142873e-02 0.
      3.57142873e-02 0. 0. 0. 3.57142873e-02 0. 0. 0. 0. 7.14285746e-02
      0. 0. 0. 3.57142873e-02 0. 0. 0. 0. 0. 0. 0. 7.14285746e-02 0. 0.
      0. 0. 0. 0. 0. 0. 3.57142873e-02 3.57142873e-02 0. 0. 0.
      3.57142873e-02 0. 0. 0. 0. 7.14285746e-02 0. 0. 0. 0. 0. 0. 0.
      3.57142873e-02 7.14285746e-02 0. 3.57142873e-02 0. 3.57142873e-02
      0. 0. 0. 0. 3.57142873e-02 3.57142873e-02 3.57142873e-02 0. 0.
      3.57142873e-02 0. 3.57142873e-02 1.07142866e-01 0. 0. 0. 0.</_>
    <_>
      1.33333337e-02 2.66666673e-02 0. 1.33333337e-02 0. 0.
      2.66666673e-02 0. 0. 0. 2.66666673e-02 1.33333337e-02
      1.33333337e-02 2.66666673e-02 0. 1.33333337e-02 2.66666673e-02
      1.33333337e-02 1.33333337e-02 0. 1.33333337e-02 0. 0. 0. 0. 0. 0.
      0. 3.99999991e-02 0. 0. 0. 5.33333346e-02 0. 6.66666701e-02
      1.33333337e-02 2.66666673e-02 0. 0. 1.33333337e-02 0.
      3.99999991e-02 0. 2.66666673e-02 5.33333346e-02 1.33333337e-02 0.
      0. 0. 1.33333337e-02 0. 2.66666673e-02 1.33333337e-02
      1.06666669e-01 0. 1.33333337e-02 0. 2.66666673e-02 0.
      2.66666673e-02 0. 0. 0. 1.33333337e-02 0. 3.99999991e-02
      1.33333337e-02 0. 1.33333337e-02 0. 0. 0. 2.66666673e-02 0.
      2.66666673e-02 1.33333337e-02 0. 0. 2.66666673e-02 1.33333337e-02</_>
    <_>
      2.43902430e-02 0. 0. 2.43902430e-02 0. 0. 2.43902430e-02
      1.21951215e-02 0. 1.21951215e-02 2.43902430e-02 0. 0.
      2.43902430e-02 0. 2.43902430e-02 4.87804860e-02 3.65853645e-02
      2.43902430e-02 0. 0. 0. 0. 0. 1.21951215e-02 0. 0. 1.21951215e-02
      4.87804860e-02 0. 0. 0. 3.65853645e-02 0. 1.21951215e-02
      1.21951215e-02 0. 1.21951215e-02 2.43902430e-02 0. 0.
      2.43902430e-02 0. 1.21951215e-02 3.65853645e-02 3.65853645e-02 0.
      0. 0. 1.21951215e-02 0. 1.21951215e-02 9.75609720e-02
      6.09756075e-02 1.21951215e-02 2.43902430e-02 0. 2.43902430e-02
      2.43902430e-02 0. 0. 0. 0. 1.21951215e-02 1.21951215e-02 0.
      4.87804860e-02 0. 1.21951215e-02 0. 0. 0. 0. 0. 2.43902430e-02
      3.65853645e-02 0. 0. 1.21951215e-02 1.21951215e-02</_>
    <_>
      5.76923117e-02 0. 1.92307699e-02 0. 1.92307699e-02 0. 0. 0.
      1.92307699e-02 1.92307699e-02 0. 0. 1.92307699e-02 0.
      1.92307699e-02 0. 0. 3.84615399e-02 5.76923117e-02 0.
      3.84615399e-02 0. 0. 1.92307699e-02 0. 1.92307699e-02 0.
      1.92307699e-02 0. 0. 0. 3.84615399e-02 0. 0. 0. 0. 0. 0. 0. 0.
      1.92307699e-02 0. 0. 0. 5.76923117e-02 1.92307699e-02 0.
      1.92307699e-02 7.69230798e-02 5.76923117e-02 0. 0. 0.
      1.92307699e-02 0. 1.92307699e-02 0. 0. 3.84615399e-02 0.
      1.92307699e-02 0. 0. 0. 1.92307699e-02 5.76923117e-02 0.
      1.92307699e-02 0. 0. 0. 1.92307699e-02 5.76923117e-02
      1.92307699e-02 0. 1.92307699e-02 1.92307699e-02 0. 0.
      1.92307699e-02</_>
    <_>
      2.77777780e-02 2.77777780e-02 0. 2.77777780e-02 2.77777780e-02 0.
      0. 2.77777780e-02 0. 2.77777780e-02 0. 0. 0. 0. 0. 2.77777780e-02
      2.77777780e-02 2.77777780e-02 2.77777780e-02 0. 2.77777780e-02 0.
      0. 0. 2.77777780e-02 0. 2.77777780e-02 2.77777780e-02 0. 0. 0.
      2.77777780e-02 0. 0. 0. 0. 0. 0. 0. 0. 2.77777780e-02
      5.55555560e-02 0. 0. 5.55555560e-02 0. 0. 0. 0. 5.55555560e-02 0.
      0. 2.77777780e-02 0. 0. 0. 0. 0. 5.55555560e-02 0. 2.77777780e-02
      0. 2.77777780e-02 0. 0. 2.77777780e-02 0. 2.77777780e-02
      5.55555560e-02 5.55555560e-02 0. 0. 0. 0. 2.77777780e-02
      5.55555560e-02 0. 0. 0. 0.</_>
    <_>
      6.25000000e-02 0. 0. 0. 0. 6.25000000e-02 3.12500000e-02
      3.12500000e-02 0. 3.12500000e-02 0. 0. 0. 0. 0. 3.12500000e-02 0.
      0. 6.25000000e-02 0. 0. 3.12500000e-02 0. 0. 6.25000000e-02 0. 0.
      0. 0. 0. 3.12500000e-02 0. 3.12500000e-02 0. 0. 0. 0. 0. 0. 0.
      3.12500000e-02 0. 0. 0. 3.12500000e-02 3.12500000e-02 0. 0. 0. 0.
      3.12500000e-02 0. 0. 0. 0. 3.12500000e-02 0. 0. 6.25000000e-02 0.
      0. 0. 3.12500000e-02 0. 0. 0. 0. 6.25000000e-02 0. 3.12500000e-02
      0. 3.12500000e-02 3.12500000e-02 3.12500000e-02 6.25000000e-02 0.
      3.12500000e-02 0. 0. 0.</_>
    <_>
      6.25000000e-02 0. 0. 3.12500000e-02 3.12500000e-02 0. 0.
      6.25000000e-02 0. 3.12500000e-02 0. 0. 3.12500000e-02 0. 0. 0. 0.
      0. 3.12500000e-02 0. 0. 3.12500000e-02 3.12500000e-02 0.
      3.12500000e-02 0. 3.12500000e-02 0. 0. 0. 3.12500000e-02 0. 0. 0.
      0. 0. 0. 0. 0. 0. 6.25000000e-02 0. 0. 0. 9.37500000e-02
      3.12500000e-02 0. 0. 0. 6.25000000e-02 0. 3.12500000e-02 0.
      3.12500000e-02 0. 0. 0. 0. 6.25000000e-02 0. 0. 0. 0. 0. 0. 0. 0.
      3.12500000e-02 6.25000000e-02 3.12500000e-02 0. 0. 3.12500000e-02
      0. 3.12500000e-02 0. 0. 0. 0. 0.</_>
    <_>
      5.71428575e-02 0. 1.42857144e-02 0. 0. 4.28571440e-02
      4.28571440e-02 1.42857144e-02 5.71428575e-02 5.71428575e-02 0. 0.
      1.42857144e-02 0. 1.42857144e-02 0. 0. 1.42857144e-02 0. 0. 0. 0.
      1.42857144e-02 1.42857144e-02 0. 1.42857144e-02 0. 4.28571440e-02
      0. 0. 1.42857144e-02 1.42857144e-02 0. 1.42857144e-02 0. 0.
      2.85714287e-02 0. 0. 0. 0. 1.42857144e-02 0. 2.85714287e-02
      1.42857144e-02 0. 2.85714287e-02 1.42857144e-02 2.85714287e-02
      1.42857144e-02 1.42857144e-02 2.85714287e-02 1.42857144e-02
      1.42857144e-02 1.42857144e-02 0. 4.28571440e-02 0. 0.
      1.42857144e-02 0. 0. 0. 2.85714287e-02 1.42857144e-02 0. 0. 0. 0.
      1.42857144e-02 0. 1.42857144e-02 2.85714287e-02 1.42857144e-02
      1.42857144e-02 1.42857144e-02 4.28571440e-02 1.42857144e-02
      2.85714287e-02 0.</_>
    <_>
      5.55555560e-02 0. 0. 2.77777780e-02 0. 0. 0. 2.77777780e-02
      2.77777780e-02 0. 0. 0. 0. 2.77777780e-02 0. 2.77777780e-02
      2.77777780e-02 0. 5.55555560e-02 0. 0. 8.33333358e-02 0.
      2.77777780e-02 5.55555560e-02 0. 0. 0. 0. 0. 2.77777780e-02 0. 0.
      0. 0. 2.77777780e-02 0. 0. 0. 0. 0. 0. 0. 0. 2.77777780e-02
      2.77777780e-02 0. 0. 0. 2.77777780e-02 0. 5.55555560e-02 0. 0. 0.
      0. 0. 0. 0. 5.55555560e-02 2.77777780e-02 0. 5.55555560e-02
      2.77777780e-02 0. 8.33333358e-02 0. 0. 2.77777780e-02 0. 0. 0. 0.
      0. 5.55555560e-02 2.77777780e-02 0. 0. 0. 0.</_>
    <_>
      3.33333351e-02 0. 0. 3.33333351e-02 6.66666701e-02 0. 0.
      6.66666701e-02 0. 3.33333351e-02 0. 0. 0. 0. 0. 0. 0.
      3.33333351e-02 3.33333351e-02 0. 0. 0. 3.33333351e-02
      3.33333351e-02 1.33333340e-01 0. 0. 3.33333351e-02 0. 0.
      3.33333351e-02 0. 0. 0. 0. 0. 0. 3.33333351e-02 0. 0.
      3.33333351e-02 0. 0. 0. 0. 0. 0. 0. 0. 0. 0. 0. 0. 0.
      3.33333351e-02 6.66666701e-02 0. 0. 3.33333351e-02 0. 0. 0.
      3.33333351e-02 0. 0. 0. 0. 3.33333351e-02 0. 3.33333351e-02 0. 0.
      6.66666701e-02 0. 6.66666701e-02 0. 0. 0. 0. 0.</_>
    <_>
      3.12500000e-02 0. 0. 0. 0. 0. 0. 3.12500000e-02 0. 3.12500000e-02
      0. 0. 0. 0. 0. 0. 0. 3.12500000e-02 3.12500000e-02 0.
      3.12500000e-02 0. 3.12500000e-02 0. 3.12500000e-02 0.
      3.12500000e-02 0. 3.12500000e-02 0. 0. 9.37500000e-02 0. 0. 0. 0.
      3.12500000e-02 0. 0. 0. 3.12500000e-02 3.12500000e-02 0. 0. 0.
      3.12500000e-02 0. 0. 0. 6.25000000e-02 3.12500000e-02 0.
      3.12500000e-02 0. 0. 0. 0. 0. 6.25000000e-02 0. 0. 0.
      3.12500000e-02 0. 0. 0. 0. 0. 0. 1.25000000e-01 0. 0. 0. 0.
      3.12500000e-02 6.25000000e-02 3.12500000e-02 0. 0. 0.</_>
    <_>
      1.02564104e-01 0. 1.28205130e-02 1.28205130e-02 1.28205130e-02
      2.56410260e-02 1.28205130e-02 0. 6.41025677e-02 1.28205130e-02 0.
      1.28205130e-02 0. 0. 1.28205130e-02 1.28205130e-02 0.
      1.28205130e-02 0. 0. 0. 0. 0. 1.28205130e-02 0. 3.84615399e-02
      1.28205130e-02 3.84615399e-02 1.28205130e-02 2.56410260e-02 0.
      5.12820520e-02 0. 1.28205130e-02 0. 0. 3.84615399e-02
      1.28205130e-02 0. 0. 0. 1.28205130e-02 1.28205130e-02
      1.28205130e-02 0. 1.28205130e-02 0. 2.56410260e-02 2.56410260e-02
      0. 1.28205130e-02 0. 0. 0. 3.84615399e-02 0. 3.84615399e-02 0. 0.
      1.28205130e-02 0. 0. 2.56410260e-02 2.56410260e-02 1.28205130e-02
      2.56410260e-02 1.28205130e-02 1.28205130e-02 0. 2.56410260e-02
      1.28205130e-02 2.56410260e-02 0. 0. 1.28205130e-02 0.
      2.56410260e-02 0. 0. 1.28205130e-02</_>
    <_>
      1.02564104e-01 0. 1.28205130e-02 1.28205130e-02 1.28205130e-02
      2.56410260e-02 1.28205130e-02 0. 6.41025677e-02 1.28205130e-02 0.
      1.28205130e-02 0. 0. 1.28205130e-02 1.28205130e-02 0.
      1.28205130e-02 0. 0. 0. 0. 0. 1.28205130e-02 0. 3.84615399e-02
      1.28205130e-02 3.84615399e-02 1.28205130e-02 2.56410260e-02 0.
      5.12820520e-02 0. 1.28205130e-02 0. 0. 3.84615399e-02
      1.28205130e-02 0. 0. 0. 1.28205130e-02 1.28205130e-02
      1.28205130e-02 0. 1.28205130e-02 0. 2.56410260e-02 2.56410260e-02
      0. 1.28205130e-02 0. 0. 0. 3.84615399e-02 0. 3.84615399e-02 0. 0.
      1.28205130e-02 0. 0. 2.56410260e-02 2.56410260e-02 1.28205130e-02
      2.56410260e-02 1.28205130e-02 1.28205130e-02 0. 2.56410260e-02
      1.28205130e-02 2.56410260e-02 0. 0. 1.28205130e-02 0.
      2.56410260e-02 0. 0. 1.28205130e-02</_>
    <_>
      8.57142881e-02 0. 0. 2.85714287e-02 0. 0. 0. 0. 5.71428575e-02 0.
      0. 0. 0. 2.85714287e-02 0. 2.85714287e-02 0. 0. 8.57142881e-02 0.
      0. 5.71428575e-02 0. 2.85714287e-02 8.57142881e-02 0. 0.
      5.71428575e-02 0. 0. 0. 2.85714287e-02 2.85714287e-02 0. 0.
      2.85714287e-02 2.85714287e-02 0. 0. 0. 0. 2.85714287e-02 0. 0.
      2.85714287e-02 2.85714287e-02 0. 0. 0. 0. 0. 0. 0. 0. 0.
      2.85714287e-02 0. 2.85714287e-02 0. 0. 5.71428575e-02 0.
      2.85714287e-02 2.85714287e-02 0. 0. 0. 0. 0. 0. 0. 0.
      2.85714287e-02 2.85714287e-02 2.85714287e-02 0. 0. 0. 0. 0.</_>
    <_>
      2.43902430e-02 0. 0. 2.43902430e-02 0. 0. 2.43902430e-02
      1.21951215e-02 0. 1.21951215e-02 2.43902430e-02 0. 0.
      2.43902430e-02 0. 2.43902430e-02 4.87804860e-02 3.65853645e-02
      2.43902430e-02 0. 0. 0. 0. 0. 1.21951215e-02 0. 0. 1.21951215e-02
      4.87804860e-02 0. 0. 0. 3.65853645e-02 0. 1.21951215e-02
      1.21951215e-02 0. 1.21951215e-02 2.43902430e-02 0. 0.
      2.43902430e-02 0. 1.21951215e-02 3.65853645e-02 3.65853645e-02 0.
      0. 0. 1.21951215e-02 0. 1.21951215e-02 9.75609720e-02
      6.09756075e-02 1.21951215e-02 2.43902430e-02 0. 2.43902430e-02
      2.43902430e-02 0. 0. 0. 0. 1.21951215e-02 1.21951215e-02 0.
      4.87804860e-02 0. 1.21951215e-02 0. 0. 0. 0. 0. 2.43902430e-02
      3.65853645e-02 0. 0. 1.21951215e-02 1.21951215e-02</_>
    <_>
      3.57142873e-02 0. 0. 3.57142873e-02 0. 0. 0. 7.14285746e-02
      7.14285746e-02 0. 0. 0. 0. 3.57142873e-02 0. 3.57142873e-02 0. 0.
      3.57142873e-02 0. 0. 7.14285746e-02 7.14285746e-02 3.57142873e-02
      1.07142866e-01 0. 0. 3.57142873e-02 0. 0. 3.57142873e-02
      3.57142873e-02 0. 0. 0. 3.57142873e-02 0. 0. 0. 0. 0. 0. 0. 0. 0.
      3.57142873e-02 0. 0. 0. 0. 0. 0. 0. 0. 0. 0. 0. 0. 0. 0.
      3.57142873e-02 0. 3.57142873e-02 3.57142873e-02 0. 0. 0. 0.
      3.57142873e-02 0. 0. 0. 0. 3.57142873e-02 3.57142873e-02 0. 0. 0.
      0. 0.</_>
    <_>
      2.43902430e-02 0. 0. 2.43902430e-02 0. 0. 2.43902430e-02
      1.21951215e-02 0. 1.21951215e-02 2.43902430e-02 0. 0.
      2.43902430e-02 0. 2.43902430e-02 4.87804860e-02 3.65853645e-02
      2.43902430e-02 0. 0. 0. 0. 0. 1.21951215e-02 0. 0. 1.21951215e-02
      4.87804860e-02 0. 0. 0. 3.65853645e-02 0. 1.21951215e-02
      1.21951215e-02 0. 1.21951215e-02 2.43902430e-02 0. 0.
      2.43902430e-02 0. 1.21951215e-02 3.65853645e-02 3.65853645e-02 0.
      0. 0. 1.21951215e-02 0. 1.21951215e-02 9.75609720e-02
      6.09756075e-02 1.21951215e-02 2.43902430e-02 0. 2.43902430e-02
      2.43902430e-02 0. 0. 0. 0. 1.21951215e-02 1.21951215e-02 0.
      4.87804860e-02 0. 1.21951215e-02 0. 0. 0. 0. 0. 2.43902430e-02
      3.65853645e-02 0. 0. 1.21951215e-02 1.21951215e-02</_>
    <_>
      6.66666701e-02 3.33333351e-02 0. 6.66666701e-02 0. 0.
      5.00000045e-02 0. 0. 0. 1.66666675e-02 0. 0. 3.33333351e-02 0.
      1.66666675e-02 3.33333351e-02 0. 0. 0. 0. 1.66666675e-02
      1.66666675e-02 1.66666675e-02 1.66666675e-02 0. 0. 0.
      5.00000045e-02 0. 1.66666675e-02 0. 5.00000045e-02 3.33333351e-02
      0. 1.66666675e-02 5.00000045e-02 0. 0. 1.66666675e-02 0.
      1.66666675e-02 0. 0. 3.33333351e-02 1.66666675e-02 1.66666675e-02
      0. 0. 1.66666675e-02 0. 0. 0. 0. 0. 0. 0. 3.33333351e-02 0.
      1.66666675e-02 1.66666675e-02 0. 1.66666675e-02 0. 1.66666675e-02
      5.00000045e-02 0. 0. 0. 0. 0. 1.66666675e-02 3.33333351e-02
      3.33333351e-02 3.33333351e-02 0. 1.66666675e-02 0. 0. 0.</_>
    <_>
      0. 0. 2.50000004e-02 5.00000007e-02 0. 0. 5.00000007e-02 0.
      2.50000004e-02 5.00000007e-02 0. 0. 0. 0. 2.50000004e-02
      2.50000004e-02 0. 0. 0. 2.50000004e-02 0. 0. 0. 5.00000007e-02 0.
      0. 7.50000030e-02 0. 0. 2.50000004e-02 2.50000004e-02
      1.50000006e-01 2.50000004e-02 0. 0. 0. 0. 0. 0. 0. 0. 0.
      2.50000004e-02 2.50000004e-02 0. 2.50000004e-02 0. 0. 0. 0.
      2.50000004e-02 0. 2.50000004e-02 0. 0. 0. 0. 0. 0. 0.
      2.50000004e-02 0. 0. 2.50000004e-02 0. 2.50000004e-02 0. 0. 0.
      2.50000004e-02 0. 0. 0. 5.00000007e-02 5.00000007e-02 0. 0.
      2.50000004e-02 0. 2.50000004e-02</_>
    <_>
      2.22222228e-02 2.22222228e-02 0. 2.22222228e-02 0. 0.
      2.22222228e-02 0. 2.22222228e-02 0. 0. 2.22222228e-02
      2.22222228e-02 2.22222228e-02 0. 4.44444455e-02 0. 0.
      6.66666701e-02 0. 0. 4.44444455e-02 2.22222228e-02 2.22222228e-02
      0. 0. 0. 0. 2.22222228e-02 0. 6.66666701e-02 0. 4.44444455e-02 0.
      0. 0. 0. 0. 0. 2.22222228e-02 0. 0. 0. 4.44444455e-02
      2.22222228e-02 2.22222228e-02 2.22222228e-02 0. 0. 0. 0.
      2.22222228e-02 0. 0. 0. 0. 0. 2.22222228e-02 0. 2.22222228e-02
      2.22222228e-02 0. 0. 4.44444455e-02 0. 0. 0. 0. 2.22222228e-02 0.
      0. 2.22222228e-02 2.22222228e-02 1.11111112e-01 4.44444455e-02 0.
      0. 0. 0. 0.</_></support_vectors>
  <decision_functions>
    <_>
      <sv_count>23</sv_count>
      <rho>-3.7761933258319552e-01</rho>
      <alpha>
        100. 1.2061482527761932e+01 100. 1.9093302737852341e+01 100.
        2.1502783672253017e+01 9.9801575903488271e+01
        5.6503196364760548e+01 5.0415557814799179e+01
        5.8770329935738168e+00 100. 100. -100. -100.
        -9.2845182995914769e+01 -5.0466294470572358e+01 -100.
        -7.7724280199338466e+01 -100. -6.6241086318943672e+01
        -1.0650882329214850e+01 -2.7014648754812235e+01
        -4.0312556945692762e+01</alpha>
      <index>
        31 36 35 45 8 23 12 13 33 42 41 40 15 9 27 49 34 44 50 51 53 1
        55</index></_>
    <_>
      <sv_count>26</sv_count>
      <rho>-4.1456398777724668e-01</rho>
      <alpha>
        2.3459862035082011e+01 100. 9.4529208444736781e+01
        4.7624331983751880e+01 9.3362038827035249e+01
        2.5751637020696080e+01 5.8901134032228013e+00
        9.9995653844129933e+01 2.8923622211392573e+01 100.
        1.1568175807140983e+01 5.2619764440872544e+01
        4.3129473918277462e+01 -3.0845085908916964e+01
        -5.5020802598796514e+01 -9.9993233131894996e+01 -100. -100.
        -2.8237791738300103e+01 -5.3416784310648062e+01
        -1.1550615195844369e+01 -1.7402274024363287e+01
        -9.0657118667803061e+01 -7.5218337391447250e+01
        -2.1599899479736404e+01 -4.2911939488587251e+01</alpha>
      <index>
        39 31 46 35 8 23 29 12 13 14 33 41 40 28 16 0 26 43 32 11 10 25
        47 2 48 54</index></_>
    <_>
      <sv_count>33</sv_count>
      <rho>1.9279878270399620e-01</rho>
      <alpha>
        100. 100. 4.1673485356773547e+01 2.9919370625713711e+01 100.
        100. 1.1182621802818685e+01 100. 3.9753296909217212e+01
        6.7597295104728531e+01 1.5688703425017170e+01
        5.2618674340721959e+01 5.1859400952095740e+01 100.
        6.8900445439153884e+01 9.5928297018344097e+01
        7.8261016407116401e+01 3.3556874022155689e+01 -100. -100. -100.
        -100. -100. -4.3718040625829047e+01 -4.0832632672443179e+00
        -6.2863917558049998e+01 -4.4269980105068875e+01
        -7.1755154654830278e+01 -100. -100. -100. -100.
        -6.0249125192834143e+01</alpha>
      <index>
        4 5 7 15 18 19 21 22 24 27 49 34 37 50 51 53 3 55 0 26 43 32 11
        25 30 47 6 2 20 52 38 17 54</index></_></decision_functions></opencv_ml_svm>
</opencv_storage>
